0.8851761841962406,1.0543398240515018,-2.9477982584099482,-1.1946841266082657,0.7407687380635823,-0.9503806651633844,1.4991758406279345,1.4743343777751126,1.476472017732049,-0.7219519979352246,-0.46860377122356545,3.0795839326769854,0.2768249114144764,3.5928927342013837,-3.847591667308953,1.323646618574263,3.3499749126203593,0.040597104960844566,-0.3704356812860058,0.2657280791882966,-0.8327042357955947,-0.9504971630740963,0.7334040164893285,1.7341875450122488,1.8066749438957321,-1.9517186593253444,0.8633241783482224,-0.6014536033408828,0.6652379377035779,-0.8718178676527227,-1.428127277251416,-1.2411613381032598,0.2521562388891078,0.2690625826435389,-0.010545394822988274,2.055671406324853,2.5912855705815843,1.091172113593995,-1.3984310870968366,-3.1675945198162823,1.0926566612244197,1.1929197426315434,-2.20127763971604
2.3627747995613135,0.8367934398830192,0.37948201248938485,0.510409265699665,0.19035660683659011,-0.23684905600324038,-0.45241410463525394,-0.4581987584927357,0.577783320313543,-0.516589357736812,-1.95419866736475,-2.5199906960457863,1.042220201951442,-1.7938146987241372,1.688616764609211,-1.4483780083037725,-1.7967579644834222,-0.6389542204494961,-1.3504810383072567,-1.839813918962325,0.8350502487616865,-0.8831987618322723,-0.28528299903513277,0.5548578151724719,-0.4976815956976585,-0.20216122457816585,1.7288115062415532,0.3666984402717129,0.29231770088874354,-0.9864432227160902,-1.4965673358567249,-0.5148962404525621,0.34306848369579906,-1.1572510435240355,0.14367173721835155,0.35691273522640327,-1.5960312547632336,1.261524483511599,2.563427270167956,2.1423102747442897,2.2906789050569456,1.5689105470675628,0.07252453107489809
1.0444865748897583,-1.6256444087519668,-0.008926013451850186,0.10079176317292328,-1.4130770698179407,-1.0591422732598188,-1.7767217130508677,-0.9190400156051505,0.621840988794154,-1.2457261751604602,0.11709850516136638,-0.145878981661296,1.8204589936042015,0.10467490703556002,1.9767575533393598,-0.6087471798442483,1.2517937118066595,0.5199942041184396,-1.5299045320697426,-2.5444023941289045,-0.31539652340928476,1.0122149051025136,-1.1607964792728462,-1.9357719839234209,1.3645710840885166,-0.5063530888838645,-0.21302259761005543,-2.602390010520963,0.5096776969595199,-2.690618533670169,-0.8752190384461849,-1.293182193918405,1.9327399784959607,-0.9170096067709713,0.9614630261729757,2.6778854268314776,-1.6674492696247827,0.47314842777419647,0.2924943674967247,-1.4255951445854993,0.6917157845942803,-1.2361394928980232,1.1511044580288512
-1.7154261871557055,-1.105388350008904,-0.02686261644280785,0.5262040357789315,-0.2979653102257064,0.817478005975967,-0.13654325409660995,1.1901239224307165,-0.671639751140127,-0.575446510015067,1.7719750128219103,2.9371318013031873,-0.1547842105753795,2.105320650315047,-2.052462433341616,-0.8061868347760444,2.986628017862414,-1.0833621857819244,0.4498133813263682,-0.14800538058695345,-0.4453642193809552,0.0934832747564807,-2.329285740877423,-0.7762560930937077,-1.5818252611829955,-0.07623416446532912,0.0015281273263188075,-0.15807198285086888,-0.45618055191464185,0.8482068772764345,0.1817426646381742,1.4875804718661845,1.1495863203862997,-0.5931842603973576,-1.950996666381132,-2.6410570027809888,-2.409590913752043,-0.4308902591797057,-0.9263143549723907,-1.7486715936320314,-0.9886225960930738,-1.735460926834209,-1.5212072830190484
-0.39705711495628965,1.9461561129613774,-1.4452263498494946,-0.4566621169227621,0.26300429691714533,-0.34293980749277425,-0.8356413386294076,0.0999566397050279,-1.7285779316340888,-0.5476908321388886,-0.2785549758315938,-0.28354604334352096,0.33620981857237775,-0.13568874374412587,-0.13759864903097666,-0.46746382410466975,-0.3495279581172736,-1.0075257822456538,-0.9159262770281537,-0.8875913426933836,1.8769946358335736,1.8956666721589863,1.1296262326829727,-1.70316430789896,-2.090910235210246,1.963214318408901,-0.5067781835252877,0.6023583186188614,0.7409287020828219,-0.4369093111517304,-0.039752105478752436,-0.03389594142483763,0.9292105862261409,-0.7819974870563092,2.015503817041925,-0.8104181119641373,0.8843810397061056,-1.2044437007961395,-1.8493853457226954,0.9375854655969232,-0.6495414892193067,0.7331747886757729,1.6495865345503857
-0.3945659594041644,1.509990893649665,-0.560190131099639,-0.4530675863167578,-0.17275844012033906,0.06026016200043022,-0.8698527676223465,-1.1419348816852735,1.193440972999941,0.3252968269839214,0.17354213638367003,0.12647136587377877,0.13622429974071373,-1.4645417615838756,1.148289786046836,-1.2644284717031256,-1.995936062164724,0.10565554547760703,0.5063043706884915,1.160163421763243,-1.404435878220044,-0.5139616709696038,0.708747891571982,0.8098080575833457,-0.19776246491583407,0.6595793785385612,-0.3701906742293272,0.9484566622878841,-0.4223778912957371,1.3402288196105323,-0.32530820387052206,-0.20845027957953388,-2.055092817502431,-1.1223741860394203,-1.538415956584232,-0.8874198876790896,-0.61637369543522,-0.7737278212457794,1.320784634010807,1.8534838199790242,-0.26340042587285784,-0.28835869688135773,-0.8475808631990163
2.1269603095106593,0.314034245765124,2.4661520956642833,-0.6657424428711861,1.6138856539743611,0.17860196342489199,-1.9223724903010255,-0.15745657697677964,0.6076044105521231,-0.581604216514934,-1.004059498760047,-0.9528887539583952,1.3713771460464428,-1.2486184958890856,1.5807728030637906,0.16920577417658111,-1.9266949009383996,0.8493937264785139,-0.9849962016794748,-0.14694099929147558,0.9380817339503755,0.40294611838516387,-0.9324562628105548,-1.9458507841760835,-1.6422671858827118,1.2717694767974512,0.3991193787043805,-2.1746253212795312,0.24901135512214367,-0.2975096388013868,1.726767945189392,0.0139311100520539,-0.3985590366170732,-0.6518393291164026,1.6628020938786174,0.862048691589486,-1.5247035549832113,0.8227950415366764,1.2829940626391287,1.634730489523411,0.7466822962297923,0.036475093210798754,1.9409228894237318
-0.5524822378586753,-0.5371525088657231,0.42631700499095737,0.7251038782126731,-0.8310411340660795,0.9477331040781605,0.826193504899652,-0.9134546466605097,-1.870018028898358,0.022667980618451884,0.9806760889666436,0.1565443012257119,-1.1248807405467824,-0.6266886057366626,1.5630020084071874,0.6727276971909802,-0.1993660287220117,0.02675700130954983,0.2512608323334767,0.8533061657093844,-0.5901740789862804,0.02105042301096504,-1.2267041013865476,-0.34297687430768214,-1.8986289863165065,-0.9573277648263668,-0.33318904190134063,2.8749317629746467,0.930101494947057,0.12317507978778383,0.36807063173662424,0.7185702232585325,-0.2188105634207889,0.5095177320057022,-2.12994704515704,-1.8104386287905183,-0.2796719051782522,-0.2825984386380248,-0.23261614487530968,-0.01101450925131406,0.057103990116514326,0.054649050541240994,-1.8026343287347486
-0.6921765905653517,-1.2611175634342242,1.998953904204202,1.7412887032803528,-0.5935281239695588,-0.46191061803094075,-0.5706443120711373,0.028083697286578176,-1.413379071596336,0.6349782513594409,-0.8579728087191414,0.17702502061633577,0.5920103037861799,0.41482859556910634,1.4649836630269255,-1.9330203284017242,0.5186704120827292,-0.031998983795383656,-0.3388496551083923,-0.9724018916272318,-1.234288762048324,2.016869749908116,0.5054215833167893,-2.19681332967482,0.13030713404696168,1.5456232167876482,-0.560056739106861,-2.4265435397709383,-0.1472196222066751,0.4617766902641145,-0.5034673313674085,0.10158663799760764,2.212780702974201,-0.4293935343427833,1.7580451807143533,0.5080945669881619,-2.2081085428565688,-1.115505869550434,-0.530376863684993,-1.012470355000954,-1.1255855763116096,-1.5766788300868098,-0.06794910394076281
1.1041550688100044,2.0854721069000863,1.7263531996675492,-1.333128032927332,2.997767337677329,1.7298549712561557,-2.2432715154050396,0.9384277140654945,0.22074875678083344,-1.4151660458255593,0.9878653010447137,-4.918413721379185,0.7965787254606191,-1.7931645625816715,1.3809164013684923,-0.42372586642683346,-1.7578199921114444,1.6343600551749922,0.10897163784753511,3.29328474897003,1.5461979935955488,0.8645251346580436,-1.2641881672757262,1.3954361713354784,-1.0394320161834156,0.6919936007028255,0.9941904372963762,0.13045462237733607,-0.897429133544322,-0.024884341128450477,0.7391871641991441,-0.33209083178041765,-1.7653815880924075,-0.21860056249297244,0.3877822950925847,-2.5747919125351215,-2.1931735821609406,-1.4242141774424315,1.5892814195839502,3.0849682022723712,1.132347756906225,1.4709519417516783,0.08297726305078697
-0.7473326079026591,-0.6240768103272649,0.32271744201710406,2.6629172229107674,0.531684632431832,-1.9630971355182278,-1.435815321749908,0.4370967708968473,-1.1997212201211975,1.746315574729606,-1.0404050004786574,0.1863432399294675,-0.273426777024007,0.35745167479536755,1.3274749270466606,-2.809187913079494,-1.3040208751561846,1.850763905712684,-2.258848303733869,0.6523534274034049,-1.890764545017529,2.2360980225345277,1.0483659010706052,-1.9119925217120013,0.5946339876033739,-0.03550926409220053,-1.73898496936954,-0.5777035941353169,0.9298834613163268,-1.7716764012415194,-2.4684886073899635,-0.45052772092343285,1.4764947625415021,-0.46719601137863437,0.4764537427243742,1.8103945561889279,-0.33009155810007457,1.6067749905680542,-2.23363080937638,-1.257062457832956,-0.35639565619818514,0.02735545147047716,-1.1054560765253632
-4.5558067393050115,-1.998282283709036,-2.4384409558783195,-0.8837428569265997,-0.5176731247291496,1.962310740964474,-2.558641170356279,-0.09470442427857341,-0.038172210368161714,-0.1894696207720193,2.7921147144932674,2.4141923422454776,0.953337374955251,0.012174894368517116,1.478285059014511,-1.3659395041992834,0.12821799112918236,2.4097172735324035,0.7267469251075915,0.06722467675680445,-3.3821482561761753,0.9841669179140391,-1.3273358814386826,0.4374546395904125,-0.23293244182031206,2.0602922343001224,-1.593913609932538,1.1693252088768689,-0.7862551263359522,1.3375296515221062,-0.05178013922991997,0.40718887479243426,-0.253410361186275,-0.5210863520939486,-0.5160770121129241,-0.8963958912725648,0.017814688775810463,-1.5044107353472598,-2.2814414621972605,-0.054879907983082635,-1.451110352237178,-1.07326994652351,-1.6540572860729206
1.958993621235376,0.3779102197575643,3.4921810431942264,2.0774045685203664,-1.3034005334117287,2.5016307556620925,1.066081004911871,-2.568094207920408,1.611630367299334,1.6048540279452372,-1.0453332703532494,1.0780117268124378,-0.0034341442129114537,2.867323322601603,0.6837370792488785,-0.7519424642755749,0.523440240228448,-3.0245768592436866,0.31144458497123384,-0.8078767389375927,3.6829796505421197,-2.412240594160071,-0.9870082806394538,-3.742055673294222,-2.128757076673582,0.6735670199255288,1.3716948760283638,-0.7336339195519986,0.7425842372032803,1.3584648673458521,-0.38761236311868,1.1710065685797257,-1.4675431416368052,-0.9941159592749514,1.0975061668679316,0.9882365051386651,-4.630955342907272,-0.29802498166153724,3.552641196045616,0.5536087389491812,-1.3606972969389208,-0.17825428170982152,1.2247442777328976
-0.22781690404172594,-0.6740381901995752,0.5526709975211833,-1.0303249740606655,0.7943756931335518,0.42655961876107434,-1.9831103360684301,1.7704709376317413,0.672299018347511,-0.5360898458788489,0.03317289066963388,-0.4852755352483346,0.9510409552195358,0.06463562271184285,0.5010923445795206,-1.7491636782816173,-1.3048047087529389,0.7798383903856448,-0.964041961902652,-2.579096776910336,-0.011896437674362091,-1.3745474656183108,0.16529363274421932,0.5658574471830363,-1.0747214951305417,0.4616479885212055,-0.7920796936687872,0.6131165763993831,-1.8962023886106587,-0.5420108374298542,-2.133493226377241,0.42808507456661027,0.017527813653699292,0.6317538410403197,-0.38371354651217665,1.0877695656507822,0.03381290383895735,-0.7373863552432465,0.4374982859581515,-0.8215409941791688,-0.9206923540052024,-0.3249715543410262,1.7144757519465272
-1.9626875802428791,-0.5806660931092247,0.9809646809872243,-1.1293868404422789,0.645654048867281,-1.6618286572447456,0.21205218599575917,0.28832520134676,-0.13572218714317028,0.516067448099227,1.633014195150618,-1.3159073833218917,-0.4842806917670004,0.19993430801244627,-0.5692537015201227,1.6380248530267874,-1.3898105375265408,0.056365429283203324,-0.30973083757817266,-1.9675523804821864,0.10812021729432351,-0.9131473187982131,0.2457765081454949,1.283920995398238,-0.7029293881568099,0.12607474989659312,-0.4640411749309511,3.212589096791002,-1.4076363815012676,-1.5285984322068262,0.11608305568876987,1.2463430249979188,-0.8640833885177618,0.32785060655224774,-1.1216764317393855,-0.3248364546472705,1.0556467918078438,-1.7216980453395259,0.7744620812567435,-0.9656377540425087,-0.7898857462008214,0.15755718270318503,-0.9320039660530913
-1.1838110210340778,2.817592965308485,-0.8413183371941545,1.8082087900867554,-0.8172417281888641,-2.308839790973735,0.47999008253441516,0.18068699934472038,0.5619521676877762,0.8774654128384172,0.24505379992897328,-0.5535626833653504,-2.0798337835777927,-0.9561418720257867,-1.441591313023811,-1.3614883644842815,-0.8151781745625669,1.0063260555288605,0.3551750429735598,-1.8369285962027422,0.8429321255523231,-1.908914625803052,0.8868877700317056,0.9134914986566981,0.30129369042407733,0.9748112720492391,0.9618142620181563,2.9095303758335276,0.23343120203639492,-0.575525917282795,0.012973682282736543,2.4744771439951796,0.7163017019067013,-0.0970513849248299,-1.0263147027107384,1.5694896937136382,2.322688812944329,-0.8956014575266433,-1.4032632782218153,0.42133224700674377,-0.4687126681252991,-0.09198345975236122,0.4655631328653195
-0.0467505207077582,-2.831915063520112,1.1151780369199331,0.5158279804301106,-1.4599014966230277,1.0739200300274143,1.3731722486493119,1.3530243690839399,0.7855340934203503,0.5535861296422598,0.20914514357486821,-1.296968140912777,-1.3372485978070674,4.110746376162577,-0.20724132664036116,0.679768873428534,0.8146868886794715,2.406330455929119,1.4656596086081348,-1.45675658298541,0.3092947879712891,-0.854212302916592,0.14125315096767815,-0.6910543259067132,-0.8625145852198352,0.4070912143853242,-0.6006053814312872,-0.7790777490311076,-0.671637449114804,-0.060691150190861846,0.8067482463498785,-0.042696673600689745,2.097429112963636,0.7056744457115584,-2.146620956082911,-0.16626377990422334,0.9098863229864717,-0.8228944863891479,1.5229985358425415,-0.45052432692733313,-0.46664844099093106,-1.0670917493651901,-0.12181554365759721
0.3046345976083295,0.15999137786473855,0.32230062520522956,1.416753591355094,0.11775290318306121,1.8739602505090203,-2.0327056481377115,-0.2299848711932919,1.0514553781364098,0.6430501627349221,0.2692405953635262,1.9106390910269533,1.376978892773941,2.0656872830302637,1.056430539553158,-2.4340532521609735,0.8309725696540877,-0.7355724211939145,-0.39671669187112657,1.9393355325609596,-0.308030436277092,-0.2477520697258057,0.6329105053400343,-3.010084534735376,-0.17050419280027213,1.9536519675332158,-1.1527802033616348,-0.14887847984197336,-1.7587417342955032,2.1079760690069285,-1.8780370626349168,-1.0084314077329612,-2.8533993126865087,-1.0821242235218695,1.9571043731866002,-1.6811775367120623,-2.9262062592546823,-1.6095904049114849,0.162480771681562,0.9237925001969952,-1.175555670224152,-1.1344151615147027,-1.542377237871424
-0.05634376297191801,3.416716921816256,0.7884362599332234,0.2696120028512489,-1.2048133130289074,2.05012189552269,-1.2293581300699983,-2.2486178428701344,0.28230502131310126,3.6835744658920997,-1.5364014265992207,-0.5290483698733028,-0.6123888119499425,-0.5015843653800685,1.976543693344025,-3.511133530868886,-1.010117308188979,-1.7920185660258812,-0.9407662031552575,1.050424378684424,-0.019319592987078107,-0.7673271738478303,1.868575214062854,-3.2192285156522877,-0.03863397510838253,2.5208289718216585,-0.25123004823824624,2.920955812876589,-1.8841023575936866,2.672999410894329,0.37575520597780654,0.3884503661263297,-2.5300822404005503,0.6741220852498306,0.06301808352265281,-0.9930317875595279,-1.7213143482634568,-0.17270067496838626,-1.3019148865112409,3.9020042051472883,-1.8438335145890121,0.7041065032752217,-0.4495329063721984
-1.3242736555226535,0.7174447741995145,-1.1429091325967693,-0.5173143718368592,0.36698588947515787,-0.047918992123407105,-0.4580838513416463,-1.0461573741717514,-2.89168871228793,0.2598381189584405,-1.229940759249262,1.0723547990459026,-1.2073317006658169,-0.03438605272736416,-1.1351346037190067,0.744293629640596,0.6478301406005331,0.16310160236973928,-0.8244666501612239,0.9806254731122068,0.8898882892820912,-0.31418143160052103,-0.966438555952601,-2.080491589855062,-1.8774251652796508,-0.10540867350467238,0.2332778123127356,2.3150504704709314,1.2228497379814043,0.6918537036668272,-1.9891458875887793,-0.2253868146206726,0.9794785926435514,0.5496082457476779,-0.028198854266405,-0.4422763151198433,-2.7702407859817493,-0.051660875464131825,-0.39306590288855303,1.8067224168121725,-0.7351636714932783,0.6197560826924549,-0.0653963409321679
0.06499756776814423,0.6823313226058474,0.08856242530300969,0.6205006632098546,0.20387586142827083,-1.6633480747236906,0.6149241969052041,-0.3379518718353964,-0.2195500525157327,-0.5828484910522909,0.26823851557529,-0.11638628479599043,-0.2732050812867172,-1.9687703982550624,1.3735584315684317,0.8833641211635936,-0.677255012239085,-0.6917557897625263,-0.10299294344542886,-1.3326729974732536,-1.378622478093292,1.1087438200296489,-0.399996003623799,1.1689635982777447,0.7105371720690696,-1.1334572317485399,0.1932279560943728,-2.285905174308035,0.7898576867669997,-0.3878894959458156,0.9252446475672977,-1.364453995071393,1.0015502040215594,-0.3846088984600967,0.5801841966364435,0.610478143683343,0.8395598605021687,0.6549108654258853,0.9024757154684445,-1.5628321811977557,1.155307862052236,-1.0222476218031058,1.011413014448082
0.40901467780217815,-0.1650471975253306,0.741615946356613,-1.1125828115843792,1.1527022455564506,-1.754809025182443,-0.8809613153110056,-0.19278147937629625,-1.1572217713083093,-1.2713255912840125,1.0876128450272127,-0.9197598163362997,-0.9456846315808649,-1.9974186492162047,0.8077439347734153,1.3690813977311116,-1.1113582025595006,0.4105934938494407,-0.9627962606308738,-1.4339065326120926,2.436991864199012,-0.5486971024520959,0.668914374010048,-0.08911238859499741,-1.3943708649107742,1.073781684559447,-1.0786589882059938,0.4742579447328022,-1.583454763386295,-1.1607373364834355,-1.0965799920769723,-0.16162028790192703,-0.6870557597641096,-0.6173212984069233,-1.2609724419137278,-0.2642689556623028,-1.1917446024343152,-0.7875797586902795,1.1586690567468059,-0.47071257891007673,0.1464046983273697,0.5950061268175002,1.654829895399714
-1.6995882917559864,-0.39505879759208823,-0.6755825735917333,1.3893756999850326,-1.0985225637061953,0.4421455130128375,0.20928316793285087,-0.8241030768143693,0.2523994886183706,1.0013204035321546,0.2479415423967227,-0.9230221536510489,-0.9549129807937238,-1.181524517444447,1.0129819980425003,-0.4213215895102262,-2.0434386562749918,0.7219678030829076,-0.7300101753197141,-2.6133899198125286,0.9742493027309188,-0.4166273387958423,1.2290005151661638,0.6611468485448184,-0.6385237501593034,-0.6795479848407329,0.8565826291544202,1.5853856614208754,-0.836070372414691,0.9581628648408504,1.3267108304694724,2.6595142929321254,-0.985970565340906,-0.4806260383215079,-1.3029484721474232,0.12259447862441084,0.18347276085968658,-0.26649977489882154,-0.06116137844575992,0.17160012562706614,-0.052774914764721834,-0.05475656079719303,1.5427028118692814
1.5851184036505137,-1.6529414230997934,1.8802685349407413,0.8677023748624001,1.1424237968463338,1.8787944403151675,0.11519907914284344,1.1653679429483148,1.6090762058172232,0.18526486672910952,0.8849042777441803,0.23564275248307615,-0.34075250555145264,3.0503454100813254,-0.03989641349508737,-0.30620516379133955,0.8286154489125902,1.0298664344567672,-0.2260942247883223,2.5594010884189644,1.3741279019570367,-0.44077473414603746,-0.681063564437992,-2.4878618622313997,-0.42907146292419684,1.3565178946058758,-1.3428451170359672,-1.444155113987412,-1.291132955845515,1.5966873416651006,-0.15956113265261507,-0.11800065399943177,-0.5619190030628836,-1.0559411250967972,-0.6677786522303119,-0.35964025562710156,-0.6477165916948897,-1.300474214176215,1.1101228506098382,0.613517474126966,-0.8807195441011966,-0.8804196298541189,-0.46373092568475777
-0.42624149695092856,1.3902568853688002,-0.10700676178025177,-0.2501776760017211,0.3755869110427631,1.3897367313613338,-2.159629543201117,-0.17906530640440765,-1.4167279791297183,0.6402606829205272,0.7861003729457523,0.662790564351776,0.03484192109754427,-0.3424759316346978,2.39042881951355,-2.53123292995864,0.24994767923899425,-1.4700447646992392,-1.8051003913042536,1.4844428045584332,-1.4085564119385208,1.1424085473798882,0.2856826095599105,-1.2139870669594597,0.6996888277173131,1.8393453046210275,-0.8731253576671223,0.10134707799240497,-2.14816462222499,1.9392413476288852,0.5928593025221691,1.6506297539054562,-2.1108391917002196,-1.104872163899979,2.089505438673465,-1.815593767925202,-0.9934979990611776,-1.3497254107056296,-1.371895756877438,3.556885359480079,-0.7652588235902763,0.04394728675288714,-0.941108529524226
1.3654913103598256,0.06530161676821289,1.2605178863494557,-0.4116413633852124,0.29879374833695754,0.15686242084037058,0.4127989666848736,-0.29393012990222667,0.45567093090465216,-0.3039827908196334,-0.7999741879612327,0.0876400113432116,-0.8994167228074236,-0.8139532267238833,0.5151036800105496,0.5706679738405073,-0.27815331596635634,-0.7993266473649733,1.0996430652676146,-0.1836246682974169,-1.5492913159769064,-0.28752779291200914,-0.6849898582385459,-0.3753819400337839,0.3113553183029502,-1.1181059422611368,0.537832529561737,0.1298922901190644,1.1350658373533353,-0.40659787809955394,-0.25681156388896936,-0.8766390664412367,0.3218042604939192,-0.162919234675586,-0.3044191751357972,-0.300010501623776,0.4146720112649038,-0.021009947071289767,0.0292479465138222,-1.947826573241513,0.4961594164468238,-0.20481105700869942,-1.2336034383753471
0.12233067130748332,-1.7667158812272823,-0.5738523622695773,-0.6382721576270897,-0.8488966654053746,1.5581252704832196,1.3486794620729254,1.0298113672329932,-0.7337483666806869,1.0894488363337664,-0.011361649794092458,-0.12292291683368467,0.8649911355620857,-0.806935940252925,-0.3719477007612135,-1.1508611073603054,0.3745952348232722,-3.381212388363067,-1.344234089517323,1.2144983897356427,-0.6611373163062527,-0.1872222954724382,0.09925666826251042,0.7656790400979063,0.8240634112067858,0.3984889100114293,-0.5453901073189563,-1.157686094888387,-0.41824584215213867,2.07873913430388,-0.5395606169237406,-0.5287241621211767,0.5833220047116092,0.2469891707270084,-0.18358054346635158,2.6300088566950763,0.6468429278845015,-0.9287142807624515,0.33267489948686024,-1.114898368390753,-0.19781864878321548,-1.0526079699599635,-0.30656565282403514
1.6124569222567773,0.35038692751861267,0.40371762909379494,1.7104909569342182,-0.3561742821919732,1.1676155937066526,1.7665462575527082,1.0008564016553594,0.28061049317469255,1.3138586947506168,0.8763618328309557,-0.4598478485835834,0.6355574146536838,0.6915829045623165,-0.28449476233462495,-2.0991286201469133,-0.2518876095039136,0.11344214233352921,0.12926908883971425,4.159159927857332,-0.36328830718178107,-0.5033226170537578,-0.18493651116084542,1.382690894161611,0.758821832727536,0.48630506639330867,0.3334428401686682,-0.5671819129335962,-1.2543561231697344,1.626024036182055,-0.2515071036162591,-0.5841797524836198,0.3867742342676534,0.5508396130906946,-0.6104840678298828,-0.7070565513648703,0.3097992406097044,1.0937960529757842,-1.9027119816684197,-0.6009362847116446,-1.0901717270584412,0.09264813842303547,0.04983958487193591
-0.3512314411578138,1.298465956774758,-2.574751052225427,-1.3185138072676905,1.5829302856815106,-0.2158881583060828,2.0486948611838924,1.4743521756159765,0.5961786402969463,-1.2338896588873784,-1.520470036206294,1.944796466344433,0.8381097134687406,2.6411391153994344,-2.099449747533265,0.8737435294633226,2.8120847830730757,-1.4542912718456835,-0.14595608348976571,0.30929443492393544,0.8197323636576064,-0.38706471756499344,0.7902241714180371,0.9605144084950369,-0.20204974811038576,-0.24770804258908097,0.676776672140491,0.6272935436264871,-0.735494633421352,-0.6196654634315442,-1.012648524437666,-0.42853634650845207,-0.8655824634204424,-0.9197725985463236,-0.08380537851671563,1.4467504198481516,1.560295408325067,1.5035935222902268,-0.21994361550749755,-0.8155428179002873,1.6364606426298682,1.574874918400396,-0.46741796076834136
1.2901098365576031,-1.0365704145787076,-0.48084995224582555,-1.5200780420695388,1.2146036425462283,-0.3177085610669115,1.448919390815917,1.999993954554611,-0.7588446550865551,-0.2431296023492007,0.7898896141777422,-0.3078316294232059,-0.20735816018855985,-1.0061531805793522,-1.2253147813667515,1.3373733853441692,-0.27179630522353415,1.117438512253024,0.8144724446418861,1.398201585328539,0.2891921599737063,0.6006833207775732,-0.8870888407330225,1.8773552941939722,0.8043487797726611,-0.43345883510009053,-0.24797549934074095,-2.7771478929068074,-0.40108429846894406,-0.9685251882221243,0.0369197941428712,0.7541746206089919,-0.48112351029280104,-0.5199742176908445,-0.4958794515762818,2.374495276560687,0.7658082312515571,-0.415582764044701,0.7275075776607787,-0.02153951046064097,0.15611277985725422,-0.04513453348139648,0.7355514239548607
-0.4362543337052878,-0.1734477581615415,2.063734836529385,0.2637110288303124,-0.5595795978786388,-1.3194545991496396,0.27962904376978637,0.9874745000476735,-0.1321793095622491,0.8870121710648933,0.3439842489562831,-1.6537876363135655,-2.5012137138443213,0.5423777160019996,-1.7171213905956433,0.35206138279642807,-1.0141632146519186,0.4820873730349002,1.7939637353245825,-1.9070260770111693,0.9071022857080353,-1.1554600384805471,-0.4067143489164734,0.968013478228235,0.12742849026339792,-0.9707574752221486,0.39262214322531164,-1.6527642422519073,-0.8562873721759722,-0.811459744985473,1.8280857106269321,0.4719153008413173,-1.3733802316259804,-0.14463031015163755,-2.0232229523145393,-1.5420517559501543,2.4727322416265123,-0.9632421889159793,-0.47608197519897744,-0.4040005529211393,-0.35913814316749343,-0.07593859512677711,-0.025653550036637145
1.047604131982939,-0.8710908997450206,0.8689493869534692,-0.22790036203900807,-1.236591129724794,1.027840516989968,-1.2763267006502885,1.4875870982214665,-0.2277847582792934,0.7922634221977986,-0.5302916326738485,-0.436343437836622,2.0892820854969107,0.99531502513051,1.1744848068911113,0.4668027307432171,-1.0751700269537856,0.7985144835058058,-0.23254449996684082,0.16207956460440562,0.4396890830360351,0.08925385716901658,-0.22457760238815694,0.5285399565984388,0.005224952919050053,0.020342443690571976,0.26552520032283944,-0.20777099037218094,-1.5237637486044653,0.333201500439797,-2.39676971863232,-0.783365312781375,0.35138712284720347,-0.14008576610473944,-1.78443341165959,1.180597786824125,-0.15402690126564877,0.2558133627995592,-0.11408951134072287,-1.0230233055521702,-1.0656077933645862,-1.3152611911691976,-0.05557767674079018
-0.8434251359017297,-0.6630843176828158,1.6087421390958323,-0.10022222336740508,0.5145442249850001,-1.4500699289104133,-0.44063379261614866,0.5833534638167025,-1.060938976344669,-1.6696285766218033,-0.13466292256496615,-0.19084712040492802,-1.0396611651634515,-1.7293331701684798,-1.3898821676561621,1.357943443674498,-1.963864105050143,1.682051303114817,-0.009422941490883097,-1.8348168486314032,0.9788400290080467,-1.333828423899405,-0.394858699162927,1.9844580322922882,-0.502521167823175,0.6868403358570682,0.48725161371229925,1.8239865738596945,-0.5912482434164638,-1.6621556471479149,-0.899109225855833,-1.0075480696032422,-0.3525171457942142,-0.08699963110343921,-0.24891927217950244,-0.2279078231455834,0.6679279891761366,0.8376502469529452,-0.3416932910213645,0.5003001547156964,-0.7396273090806922,-0.35589207008434376,1.190787365331663
-1.900527278265997,0.04398195377143031,-1.3524894625009332,1.1171654401889253,0.7928482245285091,-0.2873020697831052,-0.8620520163461782,0.26547236202280683,1.3135444964906278,0.640173084969595,1.6235311316421603,-0.2624148686827941,-2.1196546097926157,0.41383155887049067,-1.177878436494471,0.4321580901119844,-0.05506688496223163,-0.8133779677078389,0.6074884351398055,-1.7813469037393208,-1.4064326985602735,-1.9739672157264547,1.2105924065681577,1.432135846399513,-0.012582829190996554,-0.3829971743210441,0.9533745192757399,1.8783021950858905,-0.28214438645645584,1.0088208527854876,0.21076049293829718,3.0432581520417994,-0.26388986552501914,-0.6161749523978356,-0.7564392846538268,0.3137614260009504,1.6815614903564733,-1.0105616092176082,-1.0788558647604594,0.07363288213349949,0.09962048277517292,0.6217502170142813,-0.06080196590841613
-1.3367803909504055,0.7133693628101686,-0.5365617377117624,2.423212548134618,-0.04833892701128835,-0.9797331231895064,0.18395971967816685,0.040550184527856345,-1.529122601985288,-0.12168559845825962,-1.0206293587306834,0.7487760615122548,-1.2912901358560545,-0.8194718290127759,-0.4054666801175012,-0.019246163609633098,-1.1089345534837942,1.6753855032471068,-0.1182430606110116,-1.5128703271892576,3.086991672167648,-1.493349673709557,-0.3572987505364931,-0.40192394923649605,-0.27299819152587856,-0.4201496165992322,1.6891969942089498,1.45233337500596,1.3267179176892763,0.003520303813030098,-0.0562784036843827,2.1125619480976683,0.5992842821647607,-1.1286343502847525,-1.1644675827469415,-0.5963102996608147,-1.1807990550348688,1.1201166619466392,-1.0518321695297326,2.3151843282323735E-4,-0.2957643998184643,-0.9746980644733237,-0.2708823514530254
2.0331903529212987,0.21908572018481856,-1.5698492167001286,-1.8630194956553456,-1.3102662348238705,0.7903773450782999,0.767707509621582,-0.7654699000434715,-0.16394672008107092,-0.6723339691303885,0.459968205513428,2.72621542218739,1.5893319247447455,0.8932493294044056,1.9292719978622686,3.4927316411975813,1.1226926014547705,2.1371729193146773,2.2279779010017733,-1.1359998300016392,-0.5085084725526766,-0.48209549565113385,-3.7437581540016045,-1.4035529006092058,-1.4288455301258278,-0.7472477105439924,0.9853734196235543,1.1439205638180403,1.8064738011899808,0.2913522697289826,-0.36468096566589814,1.3601055422597554,-2.121022691964587,-0.23748214553102154,-1.7225320624161453,-1.848863630975433,-1.1407217727476373,2.2221449059093126,-0.032192130306676406,0.6425816607036825,1.0311750443315302,-1.9394749887012357,-0.22023048275167867
-1.0325921769819493,-1.1539707964526427,-0.5864741459321001,0.643424300231473,-0.2261600376777446,-1.4959198012450177,-0.4916581320765073,0.7665964195047859,-1.178062314626142,-2.081737385725957,-0.905808445426235,-3.7039577414905445,0.6847389065127423,2.1899006820071434,0.8502559342760344,0.9742245805325077,-1.0494967455905355,-0.2879395382461388,-1.7838484081811903,-1.4540211582314562,0.6951603630402015,2.638198317093965,1.51741244081342,1.5362543262450956,1.1971435406566888,0.9849592257468093,0.03182258539324218,-0.586877729746048,0.10945908901129232,-2.4016088413104093,0.515655467047872,1.5560289189908825,2.195310514732606,0.5688426222680983,0.9299345811245145,0.4967927013234639,-0.9699669540533591,-0.6102534180065503,2.0645003224184983,1.9469286467345135,1.0412201178434406,2.1089226847882863,0.23658739766661657
-0.20549698813369294,-1.7959166834817086,3.4990346107542836,1.5890884906023726,-0.67673007568452,-1.0968674675569097,1.0797037516214356,-1.1529803753826775,-0.6298127830534498,0.9205931919980226,-0.595059922474658,-1.046264325611966,-1.4890372798529328,2.1793172812869197,-0.2092316363421435,0.2412232121550677,-0.4443387287191778,-1.456869183463601,-0.02584590291483679,-1.6811623341945,-0.40156575546717976,-0.4442654498799783,-2.2339235640018984,-1.5837992272488028,-0.14301239530499932,-0.3442023647491991,0.13597597245099832,-1.0452790280377,0.7815668635845705,2.175053081951962,0.7429470276212232,2.025618075598372,1.3071471597702726,0.1605682062925878,3.086423967620434,2.28112345996971,-3.2201730483844258,-0.8023411505605199,2.9183323691673584,-1.9245317306826828,0.823079518715209,-1.24144099917099,-0.30669119033031944
-3.23193651307325,3.5800647863756487,-0.2431507069105086,0.41015382134946105,3.3329105398745953,-0.9061578937871011,1.6236964678652477,1.7687999283689568,-2.7137209935573927,-0.6689093410470109,0.5414637616652587,-0.6885833713485153,-1.763260823712265,-1.9335072775501272,-2.5420257695602095,-1.2343619623818014,-0.9468977283383545,0.5379442993643798,0.19881081657591604,2.107383297071406,-0.9206193848031358,0.46119700515477396,0.6135993377161257,0.19625508429613484,-0.2759633647233838,2.7648736864594254,0.9575438140912781,2.97436589356133,-0.38251200124265716,0.006710788513336195,-0.5047039856829779,-0.7242679434641967,-0.0019719177035397253,-1.0707401344067617,-1.7052830675330446,-3.7008115544721067,2.2396853094690896,-1.7591000047553094,-2.9598101961594447,0.7955327970154571,-1.6879475752284174,1.5709228759723672,-0.8343125164236851
-0.46633956690523864,0.8247255559697302,1.2703591873286504,-1.3204200287856416,0.40939616949207114,-0.6200658203569039,-0.23961263326289006,0.42064157636956045,-0.7070147220714578,0.03988640147690228,1.4986700278063065,-1.2563214014029753,0.6026627130885502,-2.6232489417952847,-0.8106366293976581,0.9523242412771341,0.258630948328729,-0.23537312509088382,0.7258323213691332,2.9825915357077966,-1.5731737725638566,2.560487389138537,1.2479445566362912,2.3526260915550408,-0.5341678489769686,0.47577844092994476,-1.9623347802746667,-0.33147638575334665,-1.1918201890396694,0.707885096784044,2.08093483826369,-0.42272528876537313,-1.7185584971766257,-0.6626382831758422,1.7137265240925765,-0.4143442600062637,1.4385713273803977,-1.3473287944360242,-1.5418557455160975,0.7660167312041994,0.5550711130837812,-1.6403194187077281,0.4908719156984516
-3.528094945450426,-0.40229741468746266,0.4871029853345058,-0.7578037914558442,0.6698088382807154,-1.4717787384465018,-0.1395080327386981,0.7578428513014421,-0.12058080819607012,-4.488746261226576,2.144060506910685,-1.8924192067496604,-0.47791405595978137,0.37685859536383903,-0.8810266170695558,1.38576767758875,-1.07262102082751,1.02803767066293,-0.13736425613031325,0.514565675640384,0.4871529836580198,-0.5461309418000362,-1.402675219463799,1.1849787811357049,0.25927382522172165,-0.5929432613499435,-1.0595105981588444,-3.045911528933224,0.06525698066282418,-0.734269339294538,-0.79237069831884,0.6835656697501252,1.55899872307822,0.4623124010791974,0.4026295580933595,0.09117192080341525,-1.7472799687532308,-3.2913678600963747,1.0725205019367028,0.4804465719973692,-0.29083837908868776,-0.2949967421594698,-1.4271605386004775
-0.28461779527247655,-2.078589057456425,-0.8156166917538064,0.043693756420120425,-0.18208747208243325,-0.23558698375639042,0.580370675616614,-0.47865712000491645,0.6971036316747612,-0.8804669132641809,0.4057063122626183,-0.15900235021539566,0.3126688068386788,-0.5934225017050468,0.23953351610128104,-1.0118657230636292,-0.9844474589774133,1.518358438600684,0.325318687067384,-2.1425158972864997,-0.7400081351546276,0.5027321182437576,0.7450376407132502,-0.28076304362718907,0.1781906332588847,0.7166166195075866,-0.3068117097470302,3.42067960347192,-0.9415695242428325,-0.26102401209603177,-2.035496039960022,-0.09514492469923748,1.857531548661601,-1.0788319222689675,-1.8230573554990248,-1.493820892965589,0.40815773948666345,0.8289202908648261,-0.014532958195182612,-0.13792659501832433,-0.5332668423915693,0.200915574318444,0.04726998192556891
-0.17567273373160822,-1.6747482948794659,-2.4162777586944584,-2.1377660099439826,-2.5415853490512768,1.715623847712072,-3.006909672679411,-1.746409151778358,2.6276644035286885,-0.6306400396167009,0.5820366627219068,-0.490694429410055,0.6853758442354345,-0.8860010540553291,1.7611347838117,-0.025217447275864103,0.7294629255247242,1.4748246411302386,0.06727801342667443,-2.0790225133011035,-0.7169782472382213,-1.9282864959828792,-0.9093387888593598,0.8971652506086096,0.16529740353996322,0.9636694013865611,0.19027535539489998,-0.2293427851712083,-1.2844379810631803,-1.0567715610456134,2.6595564638544844,-2.063561855949295,-0.45191579705603957,-0.03396502023915473,-1.1619050375398292,-1.0245539877572059,1.15457851649104,-0.5643237700119045,0.9234880572609397,0.056418079662648495,-0.8534179299919459,-0.8492051408471514,4.019275197578367
0.4670609414541342,1.9823685616115791,-2.0571343468089003,-0.813215382370284,-0.13121517118721118,-0.019620391983946623,-1.8861782625382815,-0.42742388746954596,0.7108604397312389,-1.8932626485682158,-0.9574616348331008,-0.0898055101759263,0.8863030844179925,-0.8808737298494569,-1.03564810137564,0.3769769337986596,0.9411683193799154,0.35866936285019835,0.07314777968938033,-1.5257599100070238,-0.8863514275078714,2.303485019450446,0.6367009265257871,2.8279841856403904,0.5772520492562992,-1.6571789785292244,0.574262334378113,1.1422407682835258,1.3183770588779327,-1.7230379836451215,-2.8702632086168403,-1.9434300187667959,-0.4276344703054732,-1.1856776995184932,1.0532892153540108,1.416907785326812,1.3653263919743046,1.0280021172460598,1.048665784766828,0.23036422926461883,-0.028491427252897397,0.5901904765845539,-2.5118615765451255
0.6164044401729093,0.25617288707241587,0.23198280037597166,0.06392682217456234,-1.0474382014094372,-0.5641160280205393,-0.19263096490197035,-0.24353662960359423,-1.4721487533444144,1.7076129571898055,-0.014198778208651652,-0.5910992408442142,0.20609259727862606,-1.5512061604283387,1.729783585594175,0.4540921154378059,-1.6524066169174239,1.6364729396536752,0.8386689692936921,0.3817840965900074,0.545022806155191,2.682774936497012,1.1350461934339258,0.8702601869269794,-0.3124214253230012,-0.25458736961859774,-1.3444342677706822,0.7898875926204926,0.5512105027617519,-0.6693112622413113,-0.9064229930478641,-0.045556327471744026,-1.2897066466204021,0.8560186092638914,0.9572655341853217,-0.6859469506116925,0.3774262027434813,1.670233972476633,-2.030634582768534,0.01703032953573087,0.23224195132089046,-1.1721585421164737,1.892763379314019
-1.1532699348417539,-0.5344863378001593,-3.091146730653618,-0.5704469178849936,-0.6185145424425789,-1.0864534939214363,-0.9700109078788559,-1.2897964439982248,-0.6894676064319435,3.1942745757348785,-0.8878981784477737,-0.4441452710990795,2.137018816197699,-0.6488127361251782,2.6485554614777818,0.47777005501157116,-3.272862681005932,-1.8071491106903657,-0.8346735470993745,-2.2348246391042923,-2.306169489010728,0.9911838622724596,0.5978417384528509,1.1639394823677316,-0.03927408353280868,-1.442800764727551,0.2263388960967951,-0.35074417272458497,1.4120002065686301,0.41581484409527886,2.543294617062007,2.7238466277660573,-0.17279917125750976,0.368095834193625,1.4542827199278532,3.132752047068709,1.3977549079792422,3.426289602028022,-0.5803559389552898,2.3371588967201284,0.9391558256369498,-0.5146138332612393,1.778415880089677
1.2617210853878496,-1.1918829517269347,2.0606345993666806,-0.12444776576813064,-0.5916534497600506,0.08252111608173758,2.380714738993739,-0.5603237772487661,-1.6559131441754817,1.5441744081588222,-1.4243409759106826,-2.048195646490923,-1.9326908055878986,1.1884473847062995,-1.1770865948771447,-0.8768731437275677,0.09224891079165055,-2.2814807856310932,-1.643196863554312,-0.09841464116183052,1.3243646913982665,-1.127080514231676,-2.5303667762828557,-0.38230043114978457,-0.8024733162646606,-0.4939552448697281,-0.27158170695039285,-2.6642897392065956,-0.5822147414423349,1.4330272153173544,0.6064748693700333,0.02082032865528122,1.8361137980279267,-0.2273116799849433,1.8437519197894447,0.8961398699992745,-3.273352055993629,-1.7514137314035136,2.2020298312951025,-1.794446253753592,0.6354795457598125,0.6646183909844791,-1.6262157754193536
-2.176106571907579,3.8029289940451547,-0.03400752222551436,-0.868460033869142,1.8535894973371159,-0.08878389073301485,-0.5453647345483523,0.7163463895679889,-3.2075877325941415,-0.47890232540664357,-0.10107415564296421,-0.8342102387643051,-2.2132327536577447,-0.983494754333462,-1.5975453108203415,-1.9915344657774705,0.3815269536040982,-0.6710679138232468,0.6109820919774638,2.0324948890676704,-0.22399441733806336,1.2127540362545404,-0.35944303589218063,-0.1700829685714311,0.6194388653424825,0.8958961787551912,0.2676054767420084,1.8746418467310555,-0.6806474694838897,0.8706322641551381,-0.6846826779563109,0.5784809480935205,-0.09736307792948387,-0.12196131573764808,-0.2177167157497947,-2.968174343787487,1.4874899656998015,-2.8356583755052696,-2.063506401950277,0.6317706060791117,-1.7583737618288233,1.0748166075611403,-0.1650531723847039
0.7003184877374582,1.994935163473352,1.8399553117682816,-0.033599902258832755,0.11406007385452716,1.0062693943893724,-0.36381428203082916,1.2808323283805685,-0.11550185958645753,0.8271172887275784,0.2070619793321156,0.2246541275274572,-0.7111230975944064,-1.304383152419681,0.7345058122574535,1.5602991033279243,1.2840696671160625,-1.216112919300309,-0.2921477736985148,2.8849161684232723,0.23694000745732494,1.7880548671788863,1.8380640460547746,1.7626919876294471,0.6822772377829548,-0.494193066970002,-0.6646623890821253,0.009746464383473567,-0.07296211101541705,0.2524444778812739,1.5475958425940228,-0.28045645248035217,-1.3986223250004175,0.23050293809399647,0.4954191833971042,-0.7858235342672356,0.9278018066680092,-1.0412903935865716,-0.2683161496442221,-0.8666129029813112,-0.7516659933494834,-1.1083416668313923,0.8984253741794812
-1.3802161991369386,-1.194050791447189,-1.2403448883461032,0.6244582485700705,1.8451424099133085,-1.1093371343160976,-0.1583525049375731,-0.5260828877174853,-0.7087985557895401,-4.224467096105623,1.3711547867127811,-0.9216350586883885,-1.0813535362378355,0.04739937595605299,-0.6450086201897078,0.3341383442371083,-0.6739088936876345,0.12072248817341515,-0.5620926862600746,1.0554222583642505,0.19692566593812905,-1.5325440677525108,-0.09145512360213402,-0.09594963389712709,0.18619083922777752,0.01648494341467099,-1.100168497536742,-2.962777875469813,0.2807412199575024,-1.6475866041531073,0.2295429179298707,0.45425299799415636,-0.4503621007167396,-1.1238713868304615,-0.5923082356045009,1.520122415645483,-1.5941465449390935,-3.2455459780719793,2.350879629425559,1.6474249490978077,0.683218165427473,0.7008616403796561,-1.180537985947708
-0.9870623880176022,-0.8418725824477178,-0.8286033688179921,0.4162319567713406,-0.4507365692710108,0.5551878198914825,-1.0022878386542107,-0.5440689041785447,0.9308244551472323,-0.7205909779301174,0.27034849193613725,5.355535290708044E-4,-0.016593154946212857,-0.22260310256451685,1.492635556674353,-0.8040032621261826,0.4469809909263707,0.5710842727974398,-1.3521143106113347,-1.326676033928797,0.3140848657575157,-0.40249561215718505,0.21401922499881226,-2.0012204224490415,0.032062213000769266,0.5708796148389675,-1.086443226606874,3.107183106071516,-0.42694097009337195,0.14653930062467832,0.10343610826434703,-0.4941788210549963,0.6553442447654705,0.8563459985771416,-1.0703470452178272,0.1640047069073539,-0.530850839525405,0.6798585878237481,-0.7999050627342207,-1.9401056432306314,0.29923074570999814,0.23018768990505536,0.9780180703427467
0.7668048969348391,-1.5916078592215381,-2.229339512319395,-2.4464828350183483,-3.1556404137095737,0.5679180746808734,-3.31594740049612,-2.285726479127095,1.4541754931719835,-1.0721729283172894,0.967793085787857,-0.8220750635457934,1.133249606479955,-0.43508235750776153,0.4897531098949802,-0.8367055424543574,0.18383749244080322,0.7507955863210204,1.7089281168012678,0.007655978517861408,1.2252312938704581,-0.9288151575965594,-0.8055545242222991,-0.7785527654231961,-1.1571966360860102,1.7028751620316214,-0.201579952321014,0.05239539366276483,-1.7257693065865218,-0.8967544331077856,2.4405512410003976,-3.252871902764749,-0.6577216637521413,-0.30585081099583195,-1.0872818382245766,-0.6611185684437783,1.9465233097690362,0.12861865193369243,1.6544291684128316,1.480206087644217,-1.3824065888384587,0.07522712624696083,3.2535493134192466
1.3758491993197428,1.4950877401818221,-1.2336963523496052,0.4340452360579698,-0.36873244163557706,-0.24406096224282728,-0.5131253474120356,-1.427106796629648,1.0768246261903054,-1.1994370827957994,-1.169301122855996,0.8788684130087424,1.5943261795578183,-0.4751839757916844,-0.5421376459128476,1.4966414140633932,-0.029202270847537067,-0.030869286014267115,-0.9630652926914731,-0.9541471571511924,0.29954778091687,0.6812708724332153,2.121630771646347,1.0864513688411332,1.3483739476328895,-0.40688977623617073,-0.049123225582519484,1.3588059324505457,0.6208620703302709,-1.1528719212596468,-1.5338963230956637,-2.4379791380907005,-0.37787100200984924,-1.2133976071853951,0.3735696591046439,-0.42855326631871016,0.6657733762273176,1.6276012518982983,0.07702831669867657,0.3320271146246343,1.3278129003530676,0.4749491226832964,-1.8357017820200399
0.44111360798996374,2.022599184210537,0.7394326508631578,1.4027916050043947,-0.5954924588070768,-1.283528056830431,-0.060941433847040365,-0.7458179749930671,-1.1624581636193299,-0.25609414419755355,-0.03761702430767931,0.6715579378585116,-1.0397396476994465,-2.889205440722937,0.2082807439339309,1.0276107443280564,-0.18128581096430346,-0.3405451902816039,0.24155156641963865,0.9891107781176586,0.8826617982320949,2.9046374668154598,1.138427980288875,-0.8296944609737809,-0.7355478456221436,-1.065150825591248,-1.2304250093672462,1.5904226992212445,0.48819031593996476,-1.4610928889985841,0.4051847419066727,0.06756114834771876,-0.5718262697251502,0.10846018105211112,1.2057441233361375,0.8362054305431755,-0.11094433725856757,0.9068508237331318,-1.8054273754139791,-1.5271612349523656,-0.617705010314657,0.32958896207857574,1.1914593106060731
-0.15578636500905763,-0.06553228385993003,-1.6044634044683077,-0.6754442044871952,-0.253045965719102,-0.012166557587685213,-1.002678566881643,-1.8044510664735858,0.7713886774429144,2.0436545088628293,-0.138182183986859,1.200960833927478,1.7160518429114113,-1.5313915397640716,2.3545673506166116,0.3988142550850225,-2.0751732814121637,-1.776617347519404,-0.9510344110460632,-0.565399675160814,-1.4747648914571663,0.3091965709392224,0.34967010888555305,0.1487715371853034,0.8094589190592834,-0.7444959274280305,1.938051965679228,0.023874304709866418,0.22202078123976743,0.4718094407969063,1.6130681776430853,0.8269934606816368,0.18515853129551743,-0.8534146868264726,1.0345900254414737,0.3708025294561997,1.060422606012701,2.269010219583975,0.6933042998585082,0.6033945518950049,-0.5227489885358889,-0.55809023866938,0.30565219990164577
